{"neuronCounts":[5,10,8],"classes":["car","fish","house","tree","bicycle","guitar","pencil","clock"],"network":{"levels":[{"inputs":[-1.7667020881711177,-0.05791219830607186,-0.15576261387882656,0.17498592857044395,0.7297627419259407],"outputs":[-1.1751394756503533,0.7321094137137241,-1.1416428584709382,0.45905253225019993,-0.12692748351429206,-0.960870579672604,3.0707624067189214,-1.7003976052251775,1.5784313369672867,0.5383037238052557],"biases":[0.2005087634442373,-0.7621464015924522,-0.7767594798610964,-0.2738789635939103,-0.7414673851268758,0.040747874245758986,0.9414165882650098,-0.9188610391372087,0.14786657696697425,0.7243283430327487],"weights":[[0.4217314449816123,-0.6168519686540295,0.010397677911002656,-0.8351679693181508,-0.19151068926532133,0.5554830334132945,-0.9756270316703737,0.7623045794603964,-0.49981531263652546,0.30969477276624735],[0.48262294604859335,0.24248350171269317,0.8839795178829681,-0.25141401403351615,-0.9538567856660909,-0.7986642681176384,0.24752319186340443,0.6691411322012781,0.7980903798572254,-0.6833362327531605],[-0.3038829344237528,-0.8684417295555278,-0.2726847931473184,0.20258327212772098,-0.9412870970952505,0.36292748162667676,0.8775621295360381,-0.9710194193100783,-0.5743451662203194,0.3564542759492171],[-0.06918813567957294,0.07319315136767646,-0.11563788421319332,-0.8151705416216504,0.6326309948945674,-0.767868076551443,-0.5583059883011634,0.7840818775722949,-0.49174723228627215,-0.29728412942353133],[-0.874052993123787,0.3705675364598564,-0.43515468459623285,-0.7987844954367582,-0.049826107850769574,0.17046474438337267,0.8967643068458457,0.43237085669255393,0.8089567740281356,0.5879761237844932]]},{"inputs":[-1.1751394756503533,0.7321094137137241,-1.1416428584709382,0.45905253225019993,-0.12692748351429206,-0.960870579672604,3.0707624067189214,-1.7003976052251775,1.5784313369672867,0.5383037238052557],"outputs":[-0.9728128907096762,-2.794323391234657,-4.9605861925494095,0.34307903865585754,-0.2946914969374674,-0.03789257887794928,-1.4472281191361804,0.6028483333657825],"biases":[0.9001444772236424,-0.25834662253876584,-0.9900148691414192,-0.17289919549123223,0.074013443547992,-0.8510136718732864,-0.24426937585228536,-0.09454345675468057],"weights":[[0.10345501024000914,0.2929975875015316,-0.4240786125549669,0.5427093890059131,0.438169034397053,0.44814739125843284,0.9603388268930351,0.46354674631531845],[-0.6140633962372695,-0.41422015355167474,-0.6536690371280534,0.9642771759649134,-0.35754286775182864,0.9259668289128937,-0.6977995614695542,0.3166710069647438],[-0.15773537204505317,0.7791209528136669,-0.24265792172175304,-0.6093390720933871,-0.8241426307215636,0.6657886372260902,0.1218491309639389,-0.24421233486730687],[0.652897891323748,0.19885305534927467,0.6351849098417159,0.09228128563794913,-0.19462698923516575,0.5010614814058245,0.6157675775669609,-0.6559779318218162],[0.8187344168169641,-0.24514802885006404,-0.9964941664363427,-0.6946842000152937,0.21636479798944697,0.40156699695062903,-0.594613288336503,-0.24933627195142627],[-0.07264157638726454,0.6076228277545317,0.9785357175489788,-0.975543927724102,0.24586948854654755,-0.0643878173007768,0.9887497631922808,0.6781023438132343],[-0.5233468811430746,0.7493067273455134,-0.7277265189255431,-0.6362045224515662,0.48429720262526255,-0.20977474162653653,0.37576947431876073,0.7841580373935799],[-0.1666743169326308,0.8353203275424006,0.999363302874575,0.1390770718486678,0.282575318638,-0.31699815155783284,-0.7073762806130719,-0.5092150449851127],[-0.5437876863739368,-0.6565360582844333,0.01544179061053752,0.6795536251323515,-0.8923386937960398,0.8363139471686551,-0.7119994740103626,-0.7489376217570456],[0.80716511950166,-0.7091789522306109,0.3054085723104256,-0.36834959409467327,0.41234761759548766,-0.06295714905965433,-0.12151534551041365,-0.8158078044045038]]}]}}