const model = {"neuronCounts":[5,10,8],"classes":["car","fish","house","tree","bicycle","guitar","pencil","clock"],"network":{"levels":[{"weights":[[-1.0022983869945985,-0.17853705545503798,0.2725248014558532,-1.1342272214473135,0.3289460203961045,-0.8724366833839279,-0.020987348380958646,-0.5183115336035466,-0.15737964790537565,-0.36866311887746867],[1.1862672515249442,-0.2266748061402993,-0.3492499896420818,0.9509056811688739,-1.0671941838881525,0.5353474013058933,-0.7379801123311153,-0.3892686119452683,0.009557018633576775,-0.07346654732967298],[0.9052529428004711,2.267321058610002,-1.3933914075699494,0.23383877892573074,0.6536704532157162,-0.7860537803064918,-0.009684267954751632,-2.8027586557535797,0.26820432038482556,3.543053076367785],[-0.8979219929718038,-0.22012986502374945,2.66826959406523,1.5735218971775498,1.8820961530395892,-0.32378642831623317,0.6895959056779899,0.3325127948770549,-0.21482666340947024,2.137741060370458],[-0.46828620329526693,0.021307383381321737,0.027293462232730943,-0.07588989479165076,0.22468633132820756,1.7645542333892312,-0.07077333264120675,0.21331006111541287,-1.8596949658219017,-0.16252526918131818]],"biases":[0.4029954085699866,1.0903041399500866,-1.2839818508504373,-1.216202344896386,-0.6814694821021372,0.3903519342871391,-0.08449936229461813,-0.3629201188189701,-0.9210925754501669,-0.3248552428615019],"inputs":[-1.7667020881711177,-0.05791219830607186,-0.15576261387882656,0.17498592857044395,0.7297627419259407],"outputs":[0.8986564189791181,0.7789595104096321,-0.7784247383556615,0.7240516978875138,-0.669217675413736,0.9970225348978758,0.06575236213033611,0.8413395650635374,-0.9692710667596667,0.03429831975800964]},{"weights":[[-1.0541492004328479,-0.02585559231736548,0.3860411810493853,-1.1880007604976452,-0.30651035351471817,1.2542477877330844,0.748564099974193,-1.1771537693517116],[1.1813027276328871,0.36739153364948474,0.12003472942904611,-1.0017657748835613,0.5789628572393193,1.4446752839679906,-0.1720732620988024,-2.054447504186995],[0.3451476426960326,-0.6846127111984728,1.0246910899626978,1.167935726395727,0.9258527499726527,-0.4668303960836249,0.12423182859130318,-1.3747039319546999],[-0.25926282622452634,-1.0537962451026492,0.5962566329126574,2.4450305116837305,-1.5293745015614428,0.32452396150248597,-0.5806628321938533,2.3762931178456244],[2.420337333198637,0.48476109240894255,-0.8632576590503875,-2.056134984506023,0.2649353687089844,-0.2535302326093115,-1.607776093603548,1.045062404545694],[-0.9538518969750613,-0.21325390033686648,0.39712637849551546,0.4074888011008575,0.705344153039792,-0.004829820710897235,-0.033707223762311785,-0.44122045255727593],[0.17695960056779145,1.0815033488782544,0.7227938447281828,-1.5652998256178943,1.5665531938791217,0.23925892467193738,-1.605761861200886,-0.9618075465271799],[-1.3108930895087252,0.24700384944732087,0.5382034447449908,0.1509284055313807,0.8563831213021545,-1.334171459219225,-0.7337295484907729,0.07688329891456841],[-0.9740497867234946,0.48810285177119417,-0.7334435292529154,1.7510712127162804,0.45669510368680655,-1.5724650306633738,0.18320075287899332,-0.3539252775883607],[0.5970220312686141,0.025431965304502112,-1.7897044792121868,-0.24272156799883254,-1.5331828114413166,-1.5522602006906627,2.6298954994421453,2.5915659335499583]],"biases":[-0.20162765516772216,0.4157721544291881,-0.72857832943646,0.116880241318164,-1.6516908849054448,-1.2822945023996426,-0.8760281592363403,2.544693595502822],"inputs":[0.8986564189791181,0.7789595104096321,-0.7784247383556615,0.7240516978875138,-0.669217675413736,0.9970225348978758,0.06575236213033611,0.8413395650635374,-0.9692710667596667,0.03429831975800964],"outputs":[-0.9976960836511439,-0.2744771122464347,0.8994683219360736,-0.6464239445980862,-0.9852166658605189,0.970308853803661,-0.552812514374924,0.9619403109200411]}]}};